#ifndef MODEL_WEIGHTS_H
#define MODEL_WEIGHTS_H

// Original name: encoder.0.weight
const float weight_0[] = {-0.08542048f, 0.51486301f, 0.30387205f, 0.03048861f, -0.44426322f, 0.26613986f, -0.02036075f, 0.40020859f, 0.39821002f, 0.15477420f, 0.36550596f, -0.22853601f, 0.09382890f, 0.78723425f, -0.34316179f, 0.33738860f, -0.40039730f, -0.09924490f, -0.33957261f, -0.40712687f, 0.02948403f, -0.37036911f, 0.08233471f, -0.07983169f, -0.17743990f, -0.41685081f, 0.19919698f, -0.68335122f, 0.29851440f, 0.48113799f, -0.17868182f, 0.50450104f, -0.13066161f, -0.02089910f, -0.19060768f, 0.61526531f, -0.10565431f, 0.11700196f, -0.24597123f, 0.20596094f, 0.28492549f, -0.28837252f, 0.07112331f, -0.02193329f, 0.14647727f, 0.46265581f, -0.48604190f, 0.03006518f, -0.16691414f, -0.04922980f, -0.11715592f, -0.56942356f, -0.22203124f, 0.27265361f, -0.45445368f, -0.25477010f, 0.57744956f, -0.19099480f, -0.19956549f, -0.09999833f, 0.43571374f, 0.17428507f, -0.01801241f, 0.03178968f, -0.18199459f, 0.53317207f, 0.11746405f, -0.01763533f, 0.43590754f, -0.07021673f, -0.16100509f, -0.26545206f, -0.22742325f, 0.21517342f, -0.10648087f, -0.20882711f, -0.48609442f, -0.12470775f, 0.31024575f, 0.09873933f, 0.51556259f, -0.02085015f, 0.08552046f, 0.12790039f, 0.11153335f, -0.55551916f, 0.21358860f, -0.50645536f, 0.31304732f, 0.21950835f, 0.20412053f, 0.20439734f, -0.12238885f, 0.06409458f, -0.11535320f, 0.30707920f, 0.25442681f, -0.58168948f, -0.14929293f, 0.04371611f, -0.12546246f, 0.31914517f, -0.43337420f, -0.25981867f, 0.34530306f, 0.62425798f, 0.07557620f, -0.16936663f, -0.36156365f, 0.48018244f, -0.06247899f, 0.42267314f};

// Original name: encoder.0.bias
const float weight_1[] = {0.42835465f, 0.36832744f, -0.11961114f, 0.57244974f, -0.51072484f, 0.67513788f, 0.39167690f, 0.17471823f, 0.32628977f, 0.59785885f, 0.28626671f, 0.31674823f, 0.56417888f, 0.50041741f, -0.21403392f, 0.73523676f};

// Original name: encoder.2.weight
const float weight_2[] = {0.17440839f, 0.40867263f, -0.08494543f, -0.37004361f, 0.36002806f, -0.11168083f, 0.02689125f, 0.11455300f, 0.27277848f, 0.31314260f, -0.01783399f, 0.32768187f, 0.58056873f, -0.00672059f, 0.28606835f, 0.36768842f, -0.23383480f, 0.01758498f, 0.14030820f, -0.25407276f, -0.00285882f, -0.13945656f, -0.00422211f, -0.21528281f, -0.20976087f, -0.18312973f, -0.17247307f, 0.05141925f, -0.10980532f, -0.05208940f, -0.16494749f, 0.16647607f, 0.31013054f, 0.12770614f, -0.25297210f, -0.27361441f, -0.11754441f, 0.35791424f, 0.03494131f, -0.43357804f, 0.32962975f, 0.26252422f, -0.13374756f, 0.04012833f, 0.52793729f, 0.45538127f, -0.04939278f, 0.46416020f, 0.18519956f, -0.08117983f, -0.32311842f, 0.14629717f, -0.10209190f, 0.48155189f, 0.02486795f, 0.27041432f, 0.33815220f, 0.51594234f, 0.30036032f, 0.06439376f, -0.11034878f, 0.61230075f, -0.29021236f, 0.08185071f, 0.20878614f, 0.11471838f, -0.00680861f, 0.10909943f, 0.34772062f, 0.20723368f, 0.31512603f, -0.10908169f, -0.06019276f, 0.20828605f, -0.16276149f, 0.35756627f, 0.10683376f, -0.12955254f, 0.07786879f, 0.01475690f, 0.26886994f, 0.14600334f, -0.36289385f, 0.54334205f, -0.33752608f, 0.24413139f, 0.33814329f, -0.13819994f, -0.03893688f, 0.62270105f, -0.03050658f, 0.09167360f, 0.02167528f, 0.30804047f, -0.26878721f, 0.02769522f, -0.02726599f, 0.44309011f, -0.25176179f, -0.22687611f, -0.15088667f, 0.46404570f, 0.13750912f, 0.27380335f, 0.62156034f, 0.12127109f, -0.25102156f, 0.01887445f, 0.09213208f, 0.09056864f, 0.03865249f, 0.73125786f, -0.20035124f, 0.20726140f, 0.12514676f, -0.05361336f, 0.10283966f, 0.06711558f, 0.00521565f, -0.09296099f, 0.06471112f, -0.23858471f, 0.15907322f, -0.11461433f, 0.17688471f, -0.17078127f, -0.23270430f, -0.21045181f};

// Original name: encoder.2.bias
const float weight_3[] = {0.39087996f, -0.16870067f, 0.51134014f, 0.29698715f, 0.33897081f, 0.29278868f, 0.31447646f, -0.24525304f};

// Original name: encoder.4.weight
const float weight_4[] = {0.33028105f, -0.33520904f, -0.20613571f, -0.45185971f, 0.44143397f, -0.00135820f, -0.72662657f, 0.06644989f, 0.08416915f, -0.06697054f, 0.05652880f, 0.23565400f, -0.52113134f, -0.24955526f, 0.59019870f, -0.03979647f, 0.14030564f, 0.26781994f, 0.52657604f, 0.18597864f, 0.25812086f, 0.56304252f, 0.18227179f, 0.17841071f, 0.62466878f, -0.05185836f, 0.33447891f, -0.48638707f, 0.52362567f, -0.35150203f, 0.34052566f, -0.26169139f};

// Original name: encoder.4.bias
const float weight_5[] = {-0.39801100f, 0.41637984f, -0.43880108f, -0.25777060f};

// Original name: decoder.0.weight
const float weight_6[] = {-0.04521819f, 0.43246448f, -0.32704282f, 0.29736751f, -0.74227279f, 0.35471231f, -0.10588843f, -0.50939095f, 0.04361521f, -0.47915140f, 0.19412710f, 0.30122054f, -0.48765174f, 0.56241220f, 0.23235910f, 0.64036566f, -0.27407947f, 0.03847687f, 0.79242736f, 0.07933556f, 0.34353033f, 0.01668520f, 0.55098945f, -0.12581393f, 0.40244710f, -0.57614857f, -0.35680521f, 0.39598995f, 0.67616218f, -0.54620141f, 0.07667327f, 0.63559413f};

// Original name: decoder.0.bias
const float weight_7[] = {0.73940361f, 0.27606821f, 0.59138042f, 0.08528279f, 0.44063225f, -0.06816303f, 0.00753504f, -0.28658828f};

// Original name: decoder.2.weight
const float weight_8[] = {0.16786887f, -0.12605289f, -0.04308569f, -0.18031713f, -0.04995218f, 0.19394042f, -0.15106925f, -0.31448299f, -0.18803930f, 0.40649989f, 0.15794177f, 0.22632767f, 0.05528435f, 0.15896741f, 0.35883406f, 0.51401812f, -0.00880110f, -0.08632609f, -0.21471371f, -0.18679246f, -0.01508027f, -0.01851651f, -0.10443550f, -0.31167153f, 0.74839038f, 0.16811301f, -0.13176937f, 0.41351482f, -0.24077998f, 0.05697011f, 0.18971887f, 0.36383793f, -0.08445120f, 0.37184528f, -0.27075902f, 0.00895511f, 0.41269469f, 0.17313598f, 0.22586598f, 0.04765497f, -0.18109880f, 0.06132627f, -0.03338518f, 0.12624404f, -0.26176718f, 0.27497885f, 0.45142940f, 0.29427856f, -0.10679173f, 0.51026815f, -0.23791566f, 0.39550248f, 0.03973579f, -0.47421819f, -0.07426371f, -0.25049847f, -0.10137713f, -0.40302637f, -0.19790046f, 0.46274099f, 0.43224761f, -0.24212986f, 0.12443229f, 0.22983713f, -0.03889537f, -0.10169379f, -0.03939104f, -0.29230377f, 0.16289547f, 0.18093577f, 0.44035020f, 0.14104438f, -0.12112136f, -0.18021026f, -0.31558976f, -0.01881705f, 0.02870859f, -0.18970822f, -0.16201511f, 0.33043429f, 0.33641416f, 0.33686268f, 0.19408207f, 0.08699202f, -0.01138305f, 0.11037020f, -0.05052349f, -0.28997526f, -0.24337323f, 0.07822645f, 0.26810077f, 0.16763687f, 0.36627525f, 0.27636826f, 0.31173328f, 0.11088201f, 0.31046274f, 0.05893812f, 0.40320593f, -0.23526980f, 0.28580707f, 0.14729755f, -0.10932457f, -0.02308486f, -0.25174677f, -0.01675867f, 0.07984550f, 0.51490402f, 0.40134430f, 0.42752615f, -0.10222804f, -0.19288616f, -0.34399629f, 0.01946971f, 0.02698421f, -0.10468851f, -0.33606711f, 0.34805122f, -0.24413486f, -0.01816475f, 0.35471833f, -0.25194770f, 0.34430903f, 0.60623556f, 0.14405704f, -0.31468222f, -0.03006773f, 0.22714135f};

// Original name: decoder.2.bias
const float weight_9[] = {-0.02374892f, -0.28606004f, -0.06272534f, 0.44369957f, -0.15762432f, 0.01224444f, -0.01704754f, 0.18198323f, -0.18942581f, -0.34983385f, 0.29450706f, 0.11926965f, 0.27398381f, -0.25861827f, -0.00626975f, -0.09299085f};

// Original name: decoder.4.weight
const float weight_10[] = {0.06772799f, 0.09099794f, 0.16493854f, -0.07737803f, 0.13396409f, 0.06875667f, 0.23893926f, 0.08813247f, 0.14605981f, -0.16173890f, -0.26509109f, 0.03278933f, -0.52757281f, 0.15138404f, -0.03139076f, 0.08333120f, 0.12962225f, 0.33534825f, 0.07705349f, 0.00525253f, -0.25118110f, 0.18903466f, 0.05626815f, 0.13477120f, 0.29431084f, -0.06714036f, -0.21985780f, 0.22209349f, 0.16708793f, -0.29771665f, 0.05422372f, 0.01958662f, -0.02538300f, -0.04258206f, 0.18803382f, -0.38448375f, 0.02713362f, -0.18179606f, -0.34781197f, 0.27967602f, -0.11795920f, 0.05138720f, -0.33838865f, 0.19863841f, -0.03215024f, 0.27411970f, 0.15535402f, 0.02906376f, -0.09143545f, 0.44618151f, -0.15396202f, -0.11845691f, -0.02463436f, 0.14781278f, -0.09648991f, 0.02484027f, 0.32071787f, 0.07271209f, -0.34199896f, -0.08875832f, 0.17795067f, -0.21586192f, 0.21258688f, 0.21593910f, 0.11930146f, -0.26012284f, 0.22276214f, 0.19371258f, 0.12942487f, -0.02004822f, 0.31158149f, -0.10595820f, -0.20595041f, 0.18040955f, -0.03822781f, -0.05647296f, -0.36539790f, 0.18443951f, 0.10564926f, -0.04803683f, 0.05478702f, -0.01162418f, -0.12535393f, -0.56414807f, 0.28990376f, 0.03123665f, -0.11829054f, 0.16167770f, 0.03272857f, 0.22416474f, -0.16191632f, 0.11142296f, -0.08930291f, 0.18389925f, -0.23934585f, 0.13184215f, -0.14155914f, -0.29031044f, -0.19119975f, 0.18575890f, -0.51492298f, -0.25158453f, -0.29579791f, 0.34214118f, -0.11812211f, 0.15709114f, -0.08280610f, -0.19751047f, 0.23066479f, 0.05299601f, 0.01398444f, 0.44124594f};

// Original name: decoder.4.bias
const float weight_11[] = {-0.51130402f, -0.17278843f, -0.01055682f, 0.12788408f, -0.19778098f, -0.26400408f, -0.24469340f};

#endif